-1.8845068,-1.8608313,3.4201765,1.463721,-1.3069904,2.8278377,2.04656,-1.6588056,-4.668004,-0.7498813,-3.6621404,-4.4855,-2.5719552,-4.1508446,-4.857913,-3.1139565,-4.533909,-1.281709,-2.6848218,-2.0678432
0.46198803,-0.09706546,0.38548705,-3.3734567,-4.200196,0.91460496,-3.6534224,-0.55436265,2.4087894,3.1435683,-2.0087526,-2.5237756,-2.037338,-1.5917956,-1.2403156,4.54132,-2.948708,1.686338,-3.0612292,-0.34392452
0.05554334,0.5998197,1.7006418,0.8419033,-0.109641545,-0.27729094,0.9265661,0.16760257,1.0844842,0.8465087,-0.18219346,-0.17506376,0.5247099,-0.36552632,-1.0071228,0.039093778,-2.5603995,-1.4134703,-0.7938018,-1.192041
-0.59319353,0.2742953,-0.3841028,-1.2481406,2.2916048,-2.37548,3.0404775,2.0258431,0.67657095,0.38039875,0.030110156,-0.8539077,-1.0232546,-4.5347157,-2.8598502,1.619379,-6.4910836,-0.13431668,-5.2235665,3.1955009
-1.1037328,-0.32673606,0.4860465,0.84596753,-1.3187066,-0.37350836,4.0725656,0.44641444,0.5941966,0.65710104,-0.7800054,-1.6453289,-0.36960658,0.005330497,-2.1985343,-0.709095,2.496517,0.06077074,-0.22927858,0.27413037
-2.2042685,-2.0735955,-0.44024757,0.4716861,-0.82208306,0.22726718,-2.8467953,-3.0409706,-6.2098308,-3.8124347,-3.496477,-3.9782753,-1.2898844,-3.5160625,-1.8841358,-1.5740502,-7.073237,-0.05794164,-2.4137802,-6.141903
0.73642576,0.7055959,-0.96659464,-0.973852,0.5780966,-2.966921,0.34104556,2.3720303,2.166504,0.13327122,-1.7388582,-2.4055672,2.239232,-3.8141832,-2.0933998,-1.041052,-4.115726,-0.25431785,-4.011566,-6.2554407
0.34999284,0.037747912,0.5534505,3.7368379,0.015218535,-0.20350547,-2.1602921,-1.042988,-2.2773068,-0.67297906,-1.7274917,-0.47188583,0.15656905,-2.6666245,-2.5770662,3.0659206,-3.4513085,-0.42098436,-3.8206522,1.5948908
-0.125618,1.062019,-1.5720375,-2.9881895,6.9045424,-0.8239365,2.383643,-0.9832105,-1.5999472,5.9053426,-0.33599377,-2.8013418,-0.6824765,0.59980005,-3.6220515,-1.3140646,-1.4470897,0.2698541,-2.1562097,-6.662824
-0.87788254,-0.13186255,-0.31878212,-2.2953672,-1.8846856,-4.2355814,-3.4209142,0.4780171,3.7123532,1.4362631,1.1013633,-2.5090013,-0.18524256,-5.794554,-2.9846823,-2.5267913,-2.937609,-1.364601,-2.1524062,1.3163395
-3.2756631,-1.0834302,0.27718863,0.6463759,0.5860349,-0.18484393,-1.1005125,-3.0323617,-2.5449324,-2.1767325,-3.4841008,-3.39941,2.8051171,-0.37852108,-3.0674736,-0.67074656,-6.2784185,-2.390304,-0.846932,-0.5734205
0.622213,0.806444,-1.8792949,-9.260374,2.8671846,1.9319446,2.3193219,-7.2636323,-5.403436,0.057042547,6.3554153,-2.0569263,-0.49522838,-3.827624,6.1196766,-1.57271,-3.336129,-1.8392123,-0.5525074,1.8935741
-0.3630867,-0.42476094,3.0628881,1.5474523,-1.8307636,-1.450844,-1.3967333,-0.9287019,-2.3604352,-1.0496793,0.93089604,-1.6825916,-1.3214301,0.21415684,4.899392,-3.602416,1.631732,0.59777594,-2.294073,3.2644112
-0.69010323,-0.7461201,-0.8502204,5.5306168,-0.76146764,-0.9789743,3.3504226,0.7104927,1.1551956,-2.411327,-2.456353,0.1921283,3.6395578,-1.1660372,0.80794334,0.6397453,-3.389374,-0.5134029,-5.2588887,1.9547402
0.10793496,-0.68882644,0.9042586,0.37488022,-0.6909078,-0.5376369,-0.9018184,4.3958707,-2.2378602,1.6076837,-1.0991842,-0.7722684,-0.0498278,-0.24707489,-0.9361133,-3.0345585,-1.3235613,-2.4803662,-7.0266633,-3.7557425
-1.0441977,0.87069684,-0.34086227,0.81949717,0.7349429,-0.8000327,-2.9560804,-4.145219,-4.845078,-4.5434165,-2.4581537,-7.830931,-1.4962212,1.6860999,-6.861352,-6.2671876,-5.7659945,-1.0354366,-7.0488734,-6.1354194
-1.2376406,0.0008109753,-0.43999246,1.5310729,-0.45664334,-1.435781,-1.2169491,-3.1165895,7.5410967,-1.179008,1.1504313,-2.714218,-0.86048,1.3614116,-0.2969026,-4.160286,-0.6700389,-0.7246803,-5.8736486,0.118263066
1.199306,-0.5116704,0.58851075,1.2380016,1.8666571,0.6132013,-0.43675435,-1.9557282,-3.0543478,1.4193884,-0.6576213,-4.407365,-0.050716694,-3.2373512,-1.6233201,-2.7442095,-4.646509,-0.35015926,-8.174179,-2.5524647
-0.3299471,0.013242056,0.833334,0.28152248,-3.3951695,-2.2664564,1.6466435,-3.070169,-2.282553,-6.4669166,-2.2786734,6.423319,-0.8756167,-5.4283857,-5.039313,0.14944972,7.402489,-2.124191,-0.046449535,2.3033066
-0.8385895,-1.3700866,1.0836178,-1.0969892,-1.4660513,-0.7436013,1.6806294,-0.15454519,1.0476422,-0.23857288,0.4516892,-2.596171,0.89160985,-8.485674,2.5486305,4.4050813,-2.9268632,-2.0436568,-4.5219846,4.471769
-0.028621854,0.53447133,0.15343009,-2.5326788,-2.4042163,-1.5014445,-2.6131203,3.5495493,-3.9154208,4.299906,2.7883396,-3.3706968,-1.6212046,-0.095998846,-4.6453576,2.276965,0.17756727,-1.2872554,7.24018,4.9632473
-0.76245457,0.29126778,-2.0311265,-8.657016,-9.066552,-4.723981,-7.45161,-4.294431,1.3523381,-3.9693022,4.8059874,1.4095814,-0.0029386266,-7.6044755,-5.315039,-6.755198,-1.6211678,-1.4342419,-5.040259,-3.27073
-2.7971213,0.24239232,-1.60081,-3.7107193,-4.22621,-2.601429,-6.0366125,-2.9214067,-1.4284606,3.3387403,2.8786223,0.075052574,2.5391471,-3.9066424,1.9983971,-2.028356,2.7578979,-0.008288815,-1.9483914,0.39312688
1.1546524,0.513843,0.4204741,-0.49081552,-2.2748997,-2.1010625,-0.50521475,-4.92472,-3.9463816,-2.7389104,-6.1874003,-4.5867796,-2.9972541,-1.8545201,-5.049995,-2.7341986,-4.8051553,2.826871,-0.23564447,-0.029461762
-0.89466274,0.43977192,0.29189965,-2.1161804,-2.2615275,-0.6508555,2.2557569,-1.0926042,-1.2129683,1.0386769,-3.002316,4.261617,-1.0063368,-0.9295707,2.174212,1.4862458,6.616748,-1.2455494,-0.41302133,-3.5329096
-0.9159573,-0.5402484,-0.21720397,0.086371794,-2.6123834,-1.4208505,5.3787208,-1.0172666,-0.056347184,-0.8107796,1.5268979,-5.8374653,-0.64373994,-1.7410103,1.5629677,-2.4288437,-1.2470821,-1.4004887,-3.477026,3.0914059
-0.5109425,-0.39924836,1.4777617,1.9785452,1.8920418,-0.9606281,-2.012145,-4.5962453,-1.5478637,-0.93502665,-3.2316463,-2.5058427,-1.9935169,-0.42490178,-2.2619069,-3.9206693,-1.7003932,-1.095506,-4.8420205,-2.850567
-2.1969826,-0.30754676,1.1612608,1.7594876,1.7191416,1.2805253,-0.64387906,-2.1488173,-1.471169,-3.8721282,-2.120956,-4.5726953,-1.5550297,-3.6541743,-2.6997287,-4.5208726,-6.6420565,0.63235974,-5.575537,-4.6321216
-0.121833846,0.027246326,3.355268,0.14716528,-0.8607549,-1.8806547,2.0579064,-0.079148024,-0.24266465,0.3055101,-0.009815915,2.4181237,0.3552577,-1.3945221,-2.0019584,-3.235666,-1.4489774,0.1262148,0.4394578,-1.8020647
-0.46583396,-1.1638942,1.8323774,-2.4724457,1.8993899,-0.6057376,-0.017388564,-0.6455232,-1.987895,0.106800586,2.738133,-1.3364012,-1.4409705,-1.4810297,-3.015296,-3.0394413,1.2001511,-0.7093566,-0.46841556,3.9099586
-0.2624715,2.448728,-1.4349779,-0.27046198,-1.9609437,0.6986652,-6.0533695,-6.8704786,-9.755871,-6.507985,-7.7403727,-5.9493613,-3.6055338,-6.725679,-1.6637832,0.35492006,-8.702822,-2.3816962,-2.0525515,-2.7195387
-0.5971031,0.09937212,2.0163736,-0.042685,1.0326903,0.13781416,1.3170897,0.100228235,-0.097577885,-0.18914253,0.8314109,0.7380839,-0.75567776,-1.2980818,-0.53197724,1.1133012,-3.5056338,2.2989419,-3.2383194,0.35128167
-1.2983665,-1.2501359,0.8273678,-0.38258576,-0.48539758,-1.6300867,1.5834339,-3.6742785,-2.6221013,-1.4415733,-1.3636088,-2.1553366,-0.16822343,-0.9415349,-2.0829918,0.09810908,-1.9969712,0.15724666,-3.4033499,-1.3164061
-1.3206578,-0.2440102,0.77028704,-0.40718496,-1.1390382,-0.25105685,2.956903,-1.0103655,-2.208146,7.6230392,-1.8127986,-2.0046792,-1.2848941,-0.3916513,-2.2472355,-1.7685399,-6.1326947,-1.7971257,-6.326592,1.2675047
-0.6572311,0.18554793,1.1446904,0.027915055,0.7847747,-0.92592806,-0.066526234,-1.355433,0.8842891,0.6484045,1.0550921,-2.6104488,-1.7235166,-1.8630332,-2.0378766,5.6080375,2.1906402,0.22076538,0.5405116,-1.3094037
1.4313082,0.873456,-0.44077155,-2.713502,-4.8455806,-2.1763287,-8.603843,-1.8193529,-0.8196614,-3.5148218,-0.45387486,0.8762532,-2.5666926,-5.20563,-0.21393777,-2.6981027,0.8616819,2.3570976,0.15337504,-1.0675974
-2.7465167,-0.533825,1.3013928,-1.4710017,-1.3116416,3.5170214,-4.2985506,-9.973205,-9.789976,-4.5437098,-6.114666,-5.3159246,-3.181667,-6.882299,-12.592675,-14.302524,-7.6181326,-1.1494164,-8.937138,-3.4107773
-0.67343116,-0.5792932,0.050227515,0.5398453,2.0528388,-0.28315085,-0.20957784,-3.0283542,0.6208031,2.23755,1.155984,-0.4987941,0.42629176,-0.12872231,-0.32597417,5.337657,-3.6621764,-1.331776,-0.7557226,3.3699608
3.4759579,-6.330936,-6.9417863,-7.671295,-8.830379,1.5857507,-2.1293552,-7.083146,2.992116,-3.5668817,-3.988943,-8.473677,-1.482711,4.3381734,-5.908346,2.0737038,-1.4783843,-1.5577539,-4.987567,4.121069
1.0436344,0.6970931,-0.862757,-5.858576,1.0011036,-1.851915,1.209192,5.233725,-0.7394345,-1.7245117,-2.8587847,-5.148114,0.05693797,-2.6151996,-1.1880276,-2.438111,2.7512443,-0.81862694,1.6146201,0.9258515
-0.23247273,0.80134165,-0.39033794,4.1999726,-1.6087047,-0.6771079,2.2649853,-0.7316258,0.70622593,-0.7071008,3.716606,-2.6576064,-1.9676605,2.2513335,-4.2712507,-1.6799562,-0.30124217,0.92270637,6.4134517,0.92614126
-1.2867645,0.6458022,2.2149162,-3.941329,-3.861717,-5.384234,1.2303014,4.1010456,5.085204,0.46906722,-5.247101,-4.01786,-2.3560622,-0.93603736,0.9625669,2.1033173,-0.34440628,-0.6078895,-3.7494879,-3.9742367
-0.31708562,0.5317115,1.1168973,0.68802536,-0.46391514,-1.7836962,-2.9555292,1.4572458,-4.138142,-1.0608768,-1.3974552,-4.192485,-0.11472949,1.9400097,-2.4023938,5.642028,-3.1374712,-1.6100899,-5.917549,0.8875673
-0.32646698,0.05624192,1.7518697,0.2072967,-0.5700538,-0.86964226,0.7601024,-1.1369524,-2.9614654,-1.5855342,-1.5094445,-0.61166275,-0.5296004,-2.5740817,0.61949694,-1.6112343,0.8310969,-0.86340976,-1.2233949,-1.3405584
0.37748834,0.90901357,-3.320692,-1.8610877,-4.4939246,1.048998,1.1830134,-6.5268226,-8.439258,-5.9415574,-2.2155025,6.836646,0.18775584,7.6234627,3.6035683,0.9590893,-4.7767367,-0.14519551,2.5586822,-2.5299573
-0.86759186,-0.3217894,1.3821257,1.2968154,-0.26007712,0.1188822,-0.08435994,-3.1724524,-2.4898803,5.172919,-0.24415696,-1.2954499,-0.86209404,-4.1392612,3.5181434,0.6090704,-1.673328,-0.7029688,-3.8166566,0.42254853
-1.0340749,0.3176328,-1.1545328,-0.7202865,2.368544,1.1258391,-0.22490779,-3.7628157,-7.6496115,-10.493351,-4.692263,-13.816043,-0.8679545,-5.216294,-7.3734603,-15.420993,-12.240925,-1.651795,-20.828945,-9.2006855
-0.064027525,0.5035934,0.31945312,0.1935233,-0.65520984,-0.4618739,1.4333664,1.2841817,1.435814,1.4928144,-0.3480261,2.5093942,1.5353502,-0.16480747,-0.25082177,1.4251678,2.4362288,-0.7992481,-0.007877955,-0.10523558
-0.49753097,-1.6254522,1.6502253,-3.2472143,3.4139369,-2.592308,0.36018428,-0.11918313,0.6063955,-4.6340346,-4.357107,-3.1449695,3.6745665,-5.149672,-6.4302864,-2.225059,-0.07206266,3.1485598,-0.06878775,-2.3591976
0.28527182,-0.035822447,0.123402715,-1.6153448,0.63499844,-2.1086004,-0.009162816,-1.4293444,-1.9163404,-1.1637241,-2.256028,-5.685555,-3.1638942,-3.0207033,-5.8561554,5.291762,0.79534715,0.56474847,-0.22781396,1.7194058